digraph Tree {
node [shape=box, style="rounded", color="black", fontname="helvetica"] ;
edge [fontname="helvetica"] ;
0 [label="Accesstoelectricityofpopu <= 99.8\nsquared_error = 78.0\nsamples = 56\nvalue = 39.3"] ;
1 [label="PC2 <= -0.1\nsquared_error = 51.8\nsamples = 37\nvalue = 44.0"] ;
0 -> 1 [labeldistance=2.5, labelangle=45, headlabel="True"] ;
2 [label="origtime2 <= 13750.0\nsquared_error = 23.8\nsamples = 21\nvalue = 40.1"] ;
1 -> 2 ;
3 [label="dist2suitable_km_new <= 596376.5\nsquared_error = 0.2\nsamples = 2\nvalue = 50.2"] ;
2 -> 3 ;
4 [label="squared_error = 0.0\nsamples = 1\nvalue = 50.5"] ;
3 -> 4 ;
5 [label="squared_error = 0.0\nsamples = 1\nvalue = 49.5"] ;
3 -> 5 ;
6 [label="Maddison_gdppc_1990_estimate_ln <= 7.9\nsquared_error = 13.4\nsamples = 19\nvalue = 38.9"] ;
2 -> 6 ;
7 [label="origtime2 <= 105000.0\nsquared_error = 9.5\nsamples = 11\nvalue = 37.2"] ;
6 -> 7 ;
8 [label="Employmentinagricultureof <= 53.7\nsquared_error = 1.6\nsamples = 6\nvalue = 35.5"] ;
7 -> 8 ;
9 [label="PC0 <= 0.9\nsquared_error = 0.0\nsamples = 3\nvalue = 34.5"] ;
8 -> 9 ;
10 [label="dist2suitable_km_new <= 103093.1\nsquared_error = 0.0\nsamples = 2\nvalue = 34.6"] ;
9 -> 10 ;
11 [label="squared_error = 0.0\nsamples = 1\nvalue = 34.5"] ;
10 -> 11 ;
12 [label="squared_error = 0.0\nsamples = 1\nvalue = 34.7"] ;
10 -> 12 ;
13 [label="squared_error = 0.0\nsamples = 1\nvalue = 34.3"] ;
9 -> 13 ;
14 [label="log_ocdistance_new <= 6.2\nsquared_error = 0.9\nsamples = 3\nvalue = 36.6"] ;
8 -> 14 ;
15 [label="popd_1500AD <= 4.7\nsquared_error = 0.0\nsamples = 2\nvalue = 36.2"] ;
14 -> 15 ;
16 [label="squared_error = 0.0\nsamples = 1\nvalue = 36.1"] ;
15 -> 16 ;
17 [label="squared_error = 0.0\nsamples = 1\nvalue = 36.4"] ;
15 -> 17 ;
18 [label="squared_error = 0.0\nsamples = 1\nvalue = 38.5"] ;
14 -> 18 ;
19 [label="log_ocdistance_new <= 2.3\nsquared_error = 4.7\nsamples = 5\nvalue = 41.1"] ;
7 -> 19 ;
20 [label="squared_error = 0.0\nsamples = 1\nvalue = 37.4"] ;
19 -> 20 ;
21 [label="Accesstoelectricityofpopu <= 42.2\nsquared_error = 1.5\nsamples = 4\nvalue = 42.1"] ;
19 -> 21 ;
22 [label="Urbanpopulationoftotalpop <= 35.3\nsquared_error = 0.3\nsamples = 2\nvalue = 40.9"] ;
21 -> 22 ;
23 [label="squared_error = 0.0\nsamples = 1\nvalue = 40.4"] ;
22 -> 23 ;
24 [label="squared_error = 0.0\nsamples = 1\nvalue = 41.4"] ;
22 -> 24 ;
25 [label="log_ocdistance_new <= 4.9\nsquared_error = 0.1\nsamples = 2\nvalue = 43.2"] ;
21 -> 25 ;
26 [label="squared_error = 0.0\nsamples = 1\nvalue = 43.0"] ;
25 -> 26 ;
27 [label="squared_error = 0.0\nsamples = 1\nvalue = 43.5"] ;
25 -> 27 ;
28 [label="PC2 <= -2.5\nsquared_error = 7.7\nsamples = 8\nvalue = 41.6"] ;
6 -> 28 ;
29 [label="squared_error = 0.0\nsamples = 1\nvalue = 48.0"] ;
28 -> 29 ;
30 [label="Employmentinagricultureof <= 25.8\nsquared_error = 3.6\nsamples = 7\nvalue = 40.9"] ;
28 -> 30 ;
31 [label="Accesstoelectricityofpopu <= 95.3\nsquared_error = 1.2\nsamples = 3\nvalue = 38.5"] ;
30 -> 31 ;
32 [label="squared_error = 0.0\nsamples = 1\nvalue = 36.9"] ;
31 -> 32 ;
33 [label="dist2suitable_km_new <= 207308.9\nsquared_error = 0.0\nsamples = 2\nvalue = 39.2"] ;
31 -> 33 ;
34 [label="squared_error = 0.0\nsamples = 1\nvalue = 39.3"] ;
33 -> 34 ;
35 [label="squared_error = 0.0\nsamples = 1\nvalue = 39.2"] ;
33 -> 35 ;
36 [label="irri_impact5 <= 0.6\nsquared_error = 0.2\nsamples = 4\nvalue = 42.1"] ;
30 -> 36 ;
37 [label="PC2 <= -1.4\nsquared_error = 0.0\nsamples = 3\nvalue = 42.4"] ;
36 -> 37 ;
38 [label="squared_error = 0.0\nsamples = 1\nvalue = 42.7"] ;
37 -> 38 ;
39 [label="Maddison_gdppc_1990_estimate_ln <= 8.4\nsquared_error = 0.0\nsamples = 2\nvalue = 42.3"] ;
37 -> 39 ;
40 [label="squared_error = 0.0\nsamples = 1\nvalue = 42.2"] ;
39 -> 40 ;
41 [label="squared_error = -0.0\nsamples = 1\nvalue = 42.3"] ;
39 -> 41 ;
42 [label="squared_error = 0.0\nsamples = 1\nvalue = 41.1"] ;
36 -> 42 ;
43 [label="popd_1500AD <= 0.1\nsquared_error = 48.9\nsamples = 16\nvalue = 47.9"] ;
1 -> 43 ;
44 [label="dist2suitable_km_new <= 668539.4\nsquared_error = 13.5\nsamples = 2\nvalue = 61.3"] ;
43 -> 44 ;
45 [label="squared_error = 0.0\nsamples = 1\nvalue = 66.5"] ;
44 -> 45 ;
46 [label="squared_error = 0.0\nsamples = 1\nvalue = 58.7"] ;
44 -> 46 ;
47 [label="frstdays <= 23.6\nsquared_error = 30.1\nsamples = 14\nvalue = 46.4"] ;
43 -> 47 ;
48 [label="Accesstoelectricityofpopu <= 8.9\nsquared_error = 13.8\nsamples = 13\nvalue = 47.9"] ;
47 -> 48 ;
49 [label="Maddison_gdppc_1990_estimate_ln <= 6.4\nsquared_error = 3.8\nsamples = 2\nvalue = 40.8"] ;
48 -> 49 ;
50 [label="squared_error = 0.0\nsamples = 1\nvalue = 38.8"] ;
49 -> 50 ;
51 [label="squared_error = 0.0\nsamples = 1\nvalue = 42.7"] ;
49 -> 51 ;
52 [label="federalism_GT <= 0.5\nsquared_error = 9.4\nsamples = 11\nvalue = 48.6"] ;
48 -> 52 ;
53 [label="PC0 <= -2.2\nsquared_error = 6.6\nsamples = 10\nvalue = 48.0"] ;
52 -> 53 ;
54 [label="PC2 <= 0.7\nsquared_error = 0.8\nsamples = 5\nvalue = 45.4"] ;
53 -> 54 ;
55 [label="sd_emeanclip <= 0.2\nsquared_error = 0.4\nsamples = 4\nvalue = 45.1"] ;
54 -> 55 ;
56 [label="PC2 <= 0.1\nsquared_error = 0.0\nsamples = 2\nvalue = 44.2"] ;
55 -> 56 ;
57 [label="squared_error = 0.0\nsamples = 1\nvalue = 44.3"] ;
56 -> 57 ;
58 [label="squared_error = 0.0\nsamples = 1\nvalue = 44.1"] ;
56 -> 58 ;
59 [label="Fixedtelephonesubscriptionsp <= 16.5\nsquared_error = 0.0\nsamples = 2\nvalue = 45.5"] ;
55 -> 59 ;
60 [label="squared_error = 0.0\nsamples = 1\nvalue = 45.7"] ;
59 -> 60 ;
61 [label="squared_error = 0.0\nsamples = 1\nvalue = 45.3"] ;
59 -> 61 ;
62 [label="squared_error = -0.0\nsamples = 1\nvalue = 47.3"] ;
54 -> 62 ;
63 [label="irri_impact5 <= 0.2\nsquared_error = 2.0\nsamples = 5\nvalue = 49.9"] ;
53 -> 63 ;
64 [label="Urbanpopulationoftotalpop <= 53.7\nsquared_error = 0.4\nsamples = 4\nvalue = 50.7"] ;
63 -> 64 ;
65 [label="PC1 <= 3.7\nsquared_error = 0.1\nsamples = 3\nvalue = 51.1"] ;
64 -> 65 ;
66 [label="Employmentinagricultureof <= 58.5\nsquared_error = 0.0\nsamples = 2\nvalue = 51.3"] ;
65 -> 66 ;
67 [label="squared_error = 0.0\nsamples = 1\nvalue = 51.3"] ;
66 -> 67 ;
68 [label="squared_error = 0.0\nsamples = 1\nvalue = 51.4"] ;
66 -> 68 ;
69 [label="squared_error = 0.0\nsamples = 1\nvalue = 50.8"] ;
65 -> 69 ;
70 [label="squared_error = -0.0\nsamples = 1\nvalue = 49.8"] ;
64 -> 70 ;
71 [label="squared_error = 0.0\nsamples = 1\nvalue = 47.8"] ;
63 -> 71 ;
72 [label="squared_error = -0.0\nsamples = 1\nvalue = 54.3"] ;
52 -> 72 ;
73 [label="squared_error = -0.0\nsamples = 1\nvalue = 34.7"] ;
47 -> 73 ;
74 [label="Maddison_gdppc_1990_estimate_ln <= 8.5\nsquared_error = 18.4\nsamples = 19\nvalue = 31.1"] ;
0 -> 74 [labeldistance=2.5, labelangle=-45, headlabel="False"] ;
75 [label="Urbanpopulationoftotalpop <= 45.8\nsquared_error = 0.6\nsamples = 3\nvalue = 38.5"] ;
74 -> 75 ;
76 [label="squared_error = 0.0\nsamples = 1\nvalue = 37.1"] ;
75 -> 76 ;
77 [label="squared_error = 0.0\nsamples = 2\nvalue = 38.9"] ;
75 -> 77 ;
78 [label="Urbanpopulationoftotalpop <= 52.7\nsquared_error = 12.5\nsamples = 16\nvalue = 30.1"] ;
74 -> 78 ;
79 [label="squared_error = 0.0\nsamples = 1\nvalue = 23.5"] ;
78 -> 79 ;
80 [label="sd_emeanclip <= 0.0\nsquared_error = 9.9\nsamples = 15\nvalue = 30.6"] ;
78 -> 80 ;
81 [label="squared_error = 0.0\nsamples = 1\nvalue = 24.3"] ;
80 -> 81 ;
82 [label="irri_impact5 <= 0.1\nsquared_error = 7.2\nsamples = 14\nvalue = 31.1"] ;
80 -> 82 ;
83 [label="PC0 <= 2.6\nsquared_error = 5.1\nsamples = 12\nvalue = 30.7"] ;
82 -> 83 ;
84 [label="PC0 <= 1.3\nsquared_error = 3.6\nsamples = 11\nvalue = 30.9"] ;
83 -> 84 ;
85 [label="Employmentinagricultureof <= 4.5\nsquared_error = 2.6\nsamples = 3\nvalue = 29.2"] ;
84 -> 85 ;
86 [label="squared_error = 0.0\nsamples = 1\nvalue = 30.8"] ;
85 -> 86 ;
87 [label="origtime2 <= 35000.0\nsquared_error = 0.2\nsamples = 2\nvalue = 27.7"] ;
85 -> 87 ;
88 [label="squared_error = 0.0\nsamples = 1\nvalue = 28.0"] ;
87 -> 88 ;
89 [label="squared_error = 0.0\nsamples = 1\nvalue = 27.0"] ;
87 -> 89 ;
90 [label="sd_emeanclip <= 0.3\nsquared_error = 2.5\nsamples = 8\nvalue = 31.6"] ;
84 -> 90 ;
91 [label="frstdays <= 23.0\nsquared_error = 0.4\nsamples = 5\nvalue = 33.2"] ;
90 -> 91 ;
92 [label="popd_1500AD <= 9.7\nsquared_error = 0.1\nsamples = 3\nvalue = 33.8"] ;
91 -> 92 ;
93 [label="squared_error = 0.0\nsamples = 1\nvalue = 33.5"] ;
92 -> 93 ;
94 [label="sd_emeanclip <= 0.1\nsquared_error = 0.0\nsamples = 2\nvalue = 34.0"] ;
92 -> 94 ;
95 [label="squared_error = 0.0\nsamples = 1\nvalue = 34.1"] ;
94 -> 95 ;
96 [label="squared_error = -0.0\nsamples = 1\nvalue = 33.9"] ;
94 -> 96 ;
97 [label="sd_emeanclip <= 0.1\nsquared_error = 0.1\nsamples = 2\nvalue = 32.6"] ;
91 -> 97 ;
98 [label="squared_error = 0.0\nsamples = 1\nvalue = 32.3"] ;
97 -> 98 ;
99 [label="squared_error = 0.0\nsamples = 1\nvalue = 33.0"] ;
97 -> 99 ;
100 [label="Employmentinagricultureof <= 2.1\nsquared_error = 0.7\nsamples = 3\nvalue = 30.3"] ;
90 -> 100 ;
101 [label="squared_error = 0.0\nsamples = 1\nvalue = 31.2"] ;
100 -> 101 ;
102 [label="log_ocdistance_new <= 5.5\nsquared_error = 0.2\nsamples = 2\nvalue = 29.7"] ;
100 -> 102 ;
103 [label="squared_error = 0.0\nsamples = 1\nvalue = 28.7"] ;
102 -> 103 ;
104 [label="squared_error = -0.0\nsamples = 1\nvalue = 29.9"] ;
102 -> 104 ;
105 [label="squared_error = -0.0\nsamples = 1\nvalue = 24.7"] ;
83 -> 105 ;
106 [label="federalism_GT <= 1.0\nsquared_error = 0.0\nsamples = 2\nvalue = 36.6"] ;
82 -> 106 ;
107 [label="squared_error = 0.0\nsamples = 1\nvalue = 36.7"] ;
106 -> 107 ;
108 [label="squared_error = 0.0\nsamples = 1\nvalue = 36.4"] ;
106 -> 108 ;
}